{
  "computed_at": "2026-04-12T23:58:18.300601+00:00",
  "period": "2021-2023",
  "components": [
    "hg_short_only",
    "hwrt_3",
    "four_corners",
    "better_kmlm",
    "em_ftlt",
    "qqq_ftlt_bonds",
    "qqq_ftlt_sma",
    "em_emerging",
    "bonds_zoop",
    "gold"
  ],
  "corr_normal": [
    [
      1.0,
      0.15101534682285883,
      0.12907411521646447,
      0.17247130873234517,
      -0.02943046496694588,
      0.25082733444888633,
      0.08207500293265985,
      -0.02811950612936936,
      0.017131933862496306,
      0.03265464365739023
    ],
    [
      0.15101534682285883,
      1.0,
      0.397861025290702,
      0.2030173392038907,
      0.12081271186697105,
      0.2758064835683378,
      0.4086806246919508,
      0.1567491432737428,
      0.2521291921620289,
      0.06174668410777299
    ],
    [
      0.12907411521646447,
      0.397861025290702,
      0.9999999999999999,
      0.5473843036601305,
      0.026898616384174085,
      0.3245894776177504,
      0.5208136270780596,
      0.06919383262688107,
      -0.005240750775595189,
      -0.0764175316652438
    ],
    [
      0.17247130873234517,
      0.2030173392038907,
      0.5473843036601305,
      0.9999999999999999,
      -0.012059836555509285,
      0.3710120572914189,
      0.22744960209812715,
      -0.03242377317465131,
      -0.002517612601210625,
      -0.054791751330622515
    ],
    [
      -0.02943046496694588,
      0.12081271186697105,
      0.026898616384174085,
      -0.012059836555509285,
      0.9999999999999999,
      0.1530993839524046,
      0.02232168793746314,
      0.8167996804538957,
      -0.07539193344910576,
      -0.09316013067200764
    ],
    [
      0.25082733444888633,
      0.2758064835683378,
      0.3245894776177504,
      0.3710120572914189,
      0.1530993839524046,
      1.0000000000000002,
      0.5361937381496308,
      0.05962672037041452,
      -0.018193531530634154,
      -0.1324422402346764
    ],
    [
      0.08207500293265985,
      0.4086806246919508,
      0.5208136270780596,
      0.22744960209812715,
      0.02232168793746314,
      0.5361937381496308,
      1.0,
      -0.03885291345264826,
      0.02398261856405708,
      -0.10428399198484266
    ],
    [
      -0.02811950612936936,
      0.1567491432737428,
      0.06919383262688107,
      -0.03242377317465131,
      0.8167996804538957,
      0.05962672037041452,
      -0.03885291345264826,
      0.9999999999999999,
      -0.0959426408989297,
      0.010258762762480726
    ],
    [
      0.017131933862496306,
      0.2521291921620289,
      -0.005240750775595189,
      -0.002517612601210625,
      -0.07539193344910576,
      -0.018193531530634154,
      0.02398261856405708,
      -0.0959426408989297,
      1.0,
      0.06060994969861293
    ],
    [
      0.03265464365739023,
      0.06174668410777299,
      -0.0764175316652438,
      -0.054791751330622515,
      -0.09316013067200764,
      -0.1324422402346764,
      -0.10428399198484266,
      0.010258762762480726,
      0.06060994969861293,
      1.0000000000000002
    ]
  ],
  "corr_stress": [
    [
      0.9999999999999999,
      0.5009158398943897,
      0.20263503894071594,
      0.41815024512434584,
      0.16152744714812547,
      0.7818912450196791,
      0.16656395073762398,
      0.19161480237747133,
      -0.09333466914234899,
      0.18107665979661888
    ],
    [
      0.5009158398943897,
      1.0,
      0.7921294755355813,
      0.651588303413025,
      0.12265750096649349,
      0.6315958865701571,
      0.6791371939207723,
      0.15838033895029027,
      -0.13013847342324833,
      0.12402107102177985
    ],
    [
      0.20263503894071594,
      0.7921294755355813,
      1.0,
      0.56672343374569,
      0.1548023317139998,
      0.3703593016363436,
      0.7325145957338103,
      0.1368056599702345,
      -0.05621883231423464,
      0.07801602460114175
    ],
    [
      0.41815024512434584,
      0.651588303413025,
      0.56672343374569,
      1.0000000000000002,
      0.2620236264041591,
      0.6214115013243446,
      0.33715904034660843,
      0.3149520725062437,
      -0.011419216192520934,
      0.1377461597772389
    ],
    [
      0.16152744714812547,
      0.12265750096649349,
      0.1548023317139998,
      0.2620236264041591,
      1.0,
      0.2533663238123086,
      0.21609046566889217,
      0.9651341895846198,
      -0.15239736176550306,
      -0.06588433155949218
    ],
    [
      0.7818912450196791,
      0.6315958865701571,
      0.3703593016363436,
      0.6214115013243446,
      0.2533663238123086,
      1.0,
      0.490499544066492,
      0.264362796646779,
      -0.1969161175269845,
      0.10451821635935439
    ],
    [
      0.16656395073762398,
      0.6791371939207723,
      0.7325145957338103,
      0.33715904034660843,
      0.21609046566889217,
      0.490499544066492,
      1.0,
      0.1411321447339727,
      -0.10416106230667473,
      -0.061709113534032106
    ],
    [
      0.19161480237747133,
      0.15838033895029027,
      0.1368056599702345,
      0.3149520725062437,
      0.9651341895846198,
      0.264362796646779,
      0.1411321447339727,
      1.0,
      -0.16379511584895692,
      -0.06324039827164227
    ],
    [
      -0.09333466914234899,
      -0.13013847342324833,
      -0.05621883231423464,
      -0.011419216192520934,
      -0.15239736176550306,
      -0.1969161175269845,
      -0.10416106230667473,
      -0.16379511584895692,
      1.0000000000000002,
      0.06938293317642079
    ],
    [
      0.18107665979661888,
      0.12402107102177985,
      0.07801602460114175,
      0.1377461597772389,
      -0.06588433155949218,
      0.10451821635935439,
      -0.061709113534032106,
      -0.06324039827164227,
      0.06938293317642079,
      0.9999999999999999
    ]
  ],
  "corr_weighted": [
    [
      0.9999999999999998,
      0.44107098374610076,
      0.1900168435043172,
      0.36826521143172575,
      0.12130914669181168,
      0.6856283641496975,
      0.1419193101940864,
      0.13615649659608436,
      -0.05820273094508366,
      0.12919978403283414
    ],
    [
      0.44107098374610076,
      1.0,
      0.7071621837805491,
      0.5408080715757742,
      0.12145904123486526,
      0.548177515352648,
      0.5944303588984025,
      0.1552201669835411,
      0.006026803024575892,
      0.0980515655293446
    ],
    [
      0.1900168435043172,
      0.7071621837805491,
      0.9999999999999999,
      0.5606826706657784,
      0.12066980082949869,
      0.35982049624727813,
      0.6638729063783216,
      0.11454565402830583,
      -0.03674676655110115,
      0.025091835879442918
    ],
    [
      0.36826521143172575,
      0.5408080715757742,
      0.5606826706657784,
      1.0,
      0.18136959661444613,
      0.55774048209651,
      0.3014488775958935,
      0.19928294257943818,
      -0.007764112804176088,
      0.06377438033377388
    ],
    [
      0.12130914669181168,
      0.12145904123486526,
      0.12066980082949869,
      0.18136959661444613,
      1.0,
      0.22438217404419097,
      0.14990536007450878,
      0.9093128269379269,
      -0.11826660967505999,
      -0.07574299657341377
    ],
    [
      0.6856283641496975,
      0.548177515352648,
      0.35982049624727813,
      0.55774048209651,
      0.22438217404419097,
      1.0,
      0.49984738949526847,
      0.1973820902109874,
      -0.12617950331642283,
      0.018607041071278543
    ],
    [
      0.1419193101940864,
      0.5944303588984025,
      0.6638729063783216,
      0.3014488775958935,
      0.14990536007450878,
      0.49984738949526847,
      1.0000000000000002,
      0.07305867904061625,
      -0.04788566243968689,
      -0.07914036219767448
    ],
    [
      0.13615649659608436,
      0.1552201669835411,
      0.11454565402830583,
      0.19928294257943818,
      0.9093128269379269,
      0.1973820902109874,
      0.07305867904061625,
      0.9999999999999999,
      -0.13212606729982845,
      -0.03029658287011287
    ],
    [
      -0.05820273094508366,
      0.006026803024575892,
      -0.03674676655110115,
      -0.007764112804176088,
      -0.11826660967505999,
      -0.12617950331642283,
      -0.04788566243968689,
      -0.13212606729982845,
      1.0,
      0.06494782011521058
    ],
    [
      0.12919978403283414,
      0.0980515655293446,
      0.025091835879442918,
      0.06377438033377388,
      -0.07574299657341377,
      0.018607041071278543,
      -0.07914036219767448,
      -0.03029658287011287,
      0.06494782011521058,
      0.9999999999999999
    ]
  ],
  "enb_current": 2191.3443807809485,
  "dr_current": 1.7555783541695076,
  "dr_scores": {
    "hg_short_only": 0.015266924637038048,
    "hwrt_3": -0.047612873759995455,
    "four_corners": -0.023804051724629183,
    "better_kmlm": -0.0653736806467966,
    "em_ftlt": 0.049300811986178195,
    "qqq_ftlt_bonds": -0.061386086818572494,
    "qqq_ftlt_sma": 0.006469718167212202,
    "em_emerging": 0.053154058121736014,
    "bonds_zoop": 0.17088984064898138,
    "gold": 0.07599814579076591
  },
  "greedy_selection": {
    "order": [
      "bonds_zoop",
      "hwrt_3",
      "em_ftlt",
      "gold",
      "qqq_ftlt_bonds",
      "em_emerging",
      "qqq_ftlt_sma",
      "hg_short_only",
      "four_corners",
      "better_kmlm"
    ],
    "enb_history": [
      1732.5230752562547,
      2454.076339482469,
      3877.9208854859367,
      3077.0209968502572,
      2804.7029730096715,
      2813.095470226071,
      2780.025761869812,
      2678.2998666304843,
      2191.344380780949
    ],
    "sharpe_history": [
      127.57629711921093,
      159.8446616745708,
      158.79603445260307,
      156.87171157373677,
      152.17014292768906,
      141.23427460897614,
      134.2534491846484,
      125.35555499504969,
      110.38221839418031
    ],
    "optimal_k": 7,
    "optimal_components": [
      "bonds_zoop",
      "hwrt_3",
      "em_ftlt",
      "gold",
      "qqq_ftlt_bonds",
      "em_emerging",
      "qqq_ftlt_sma"
    ],
    "invvol_weights": {
      "bonds_zoop": 0.12852131209014142,
      "hwrt_3": 0.14778753294692795,
      "em_ftlt": 0.12449410827110416,
      "gold": 0.24493880602088292,
      "qqq_ftlt_bonds": 0.10242428382396156,
      "em_emerging": 0.12140652934579987,
      "qqq_ftlt_sma": 0.13042742750118197
    }
  },
  "spy_stress_threshold": -0.013858054263747064,
  "lambda": 0.4
}